%YAML:1.0
---
opencv_ml_nbayes:
   format: 3
   var_count: 7
   var_all: 7
   cls_labels: !!opencv-matrix
      rows: 3
      cols: 1
      dt: i
      data: [ 1, 2, 3 ]
   count:
      - !!opencv-matrix
         rows: 1
         cols: 7
         dt: i
         data: [ 12, 12, 12, 12, 12, 12, 12 ]
      - !!opencv-matrix
         rows: 1
         cols: 7
         dt: i
         data: [ 12, 12, 12, 12, 12, 12, 12 ]
      - !!opencv-matrix
         rows: 1
         cols: 7
         dt: i
         data: [ 12, 12, 12, 12, 12, 12, 12 ]
   sum:
      - !!opencv-matrix
         rows: 1
         cols: 7
         dt: d
         data: [ 9.3166753649711609e+00, 4.5138656139373779e+01,
             6.6301347732543945e+01, 8.7433626174926758e+01,
             3.6086173057556152e+01, -7.1431819915771484e+01,
             1.6783905029296875e+00 ]
      - !!opencv-matrix
         rows: 1
         cols: 7
         dt: d
         data: [ 7.9956541061401367e+00, 4.8743829727172852e+01,
             5.7597864866256714e+01, 6.2260495662689209e+01,
             -8.5142087936401367e+01, -3.5182336807250977e+01,
             2.4867864608764648e+01 ]
      - !!opencv-matrix
         rows: 1
         cols: 7
         dt: d
         data: [ 8.2868671417236328e+00, 4.0971199393272400e+01,
             2.7070773243904114e+01, 5.8631036520004272e+01,
             -2.4646983146667480e+00, -1.9338213682174683e+01,
             -4.9308758735656738e+01 ]
   productsum:
      - !!opencv-matrix
         rows: 7
         cols: 7
         dt: d
         data: [ 7.2333756159898535e+00, 3.5046458292657292e+01,
             5.1478702469128734e+01, 6.7886126145621716e+01,
             2.8092519920328073e+01, -5.5446647197653363e+01,
             1.3152650554661136e+00, 3.5046458292657292e+01,
             1.7010251656545631e+02, 2.5000131824711900e+02,
             3.2962931976972652e+02, 1.5426459832679916e+02,
             -2.6652470654834019e+02, 1.2052158720615353e+01,
             5.1478702469128734e+01, 2.5000131824711900e+02,
             3.6997242077970395e+02, 4.8667676533339522e+02,
             2.3120041347353072e+02, -3.7635926574561518e+02,
             4.0156632063619782e+01, 6.7886126145621716e+01,
             3.2962931976972652e+02, 4.8667676533339522e+02,
             6.4083285117803325e+02, 3.1006880544551132e+02,
             -5.0003579079730343e+02, 4.6322910352781946e+01,
             2.8092519920328073e+01, 1.5426459832679916e+02,
             2.3120041347353072e+02, 3.1006880544551132e+02,
             2.3453305850034731e+03, 2.0294721947034668e+02,
             4.2342871523708982e+02, -5.5446647197653363e+01,
             -2.6652470654834019e+02, -3.7635926574561518e+02,
             -5.0003579079730343e+02, 2.0294721947034668e+02,
             1.0812281645133007e+03, -2.7440116045019749e+01,
             1.3152650554661136e+00, 1.2052158720615353e+01,
             4.0156632063619782e+01, 4.6322910352781946e+01,
             4.2342871523708982e+02, -2.7440116045019749e+01,
             2.3991849825334793e+03 ]
      - !!opencv-matrix
         rows: 7
         cols: 7
         dt: d
         data: [ 5.3283628472864635e+00, 3.2437869962726467e+01,
             3.8320097087282790e+01, 4.1462003111652308e+01,
             -5.6732118220195048e+01, -2.3456668505431509e+01,
             1.6830304848962101e+01, 3.2437869962726467e+01,
             2.1072844531346982e+02, 2.4129468082625590e+02,
             2.6118530443582495e+02, -3.6446701818812699e+02,
             -9.0877028849833096e+01, 1.5488527326944495e+02,
             3.8320097087282790e+01, 2.4129468082625590e+02,
             2.8461398329132572e+02, 3.0305092461007212e+02,
             -3.8893664561548371e+02, -1.6039059779479794e+02,
             1.1649386383209753e+02, 4.1462003111652308e+01,
             2.6118530443582495e+02, 3.0305092461007212e+02,
             3.2922654189751051e+02, -4.5811751629183709e+02,
             -1.4391765472471093e+02, 1.7867874122463354e+02,
             -5.6732118220195048e+01, -3.6446701818812699e+02,
             -3.8893664561548371e+02, -4.5811751629183709e+02,
             1.3534717319635147e+03, 2.3886425543949827e+01,
             -2.9375941618684828e+02, -2.3456668505431509e+01,
             -9.0877028849833096e+01, -1.6039059779479794e+02,
             -1.4391765472471093e+02, 2.3886425543949827e+01,
             6.6652441292767799e+02, 3.5804190760084930e+02,
             1.6830304848962101e+01, 1.5488527326944495e+02,
             1.1649386383209753e+02, 1.7867874122463354e+02,
             -2.9375941618684828e+02, 3.5804190760084930e+02,
             1.3231857487901962e+03 ]
      - !!opencv-matrix
         rows: 7
         cols: 7
         dt: d
         data: [ 5.7614226745725929e+00, 2.8815730145846956e+01,
             1.8840400405522473e+01, 4.1123303976387177e+01,
             -3.2382253752191446e+00, -1.2515034912075919e+01,
             -3.6640678093517749e+01, 2.8815730145846956e+01,
             1.4902186261009939e+02, 9.4298975619141387e+01,
             2.1062428797257985e+02, -5.3536580118730512e+00,
             -3.1774009681128604e+01, -2.1482038160291933e+02,
             1.8840400405522473e+01, 9.4298975619141387e+01,
             6.1633512256811244e+01, 1.3458330895122293e+02,
             -1.0819621503593623e+01, -4.0724438842170372e+01,
             -1.2031062388974493e+02, 4.1123303976387177e+01,
             2.1062428797257985e+02, 1.3458330895122293e+02,
             2.9858147821845779e+02, -1.3531609501044841e+01,
             -5.8962244127806343e+01, -2.9361568346389288e+02,
             -3.2382253752191446e+00, -5.3536580118730512e+00,
             -1.0819621503593623e+01, -1.3531609501044841e+01,
             9.4236180861927573e+02, 6.3584988385283884e+02,
             -1.8751508178986364e+02, -1.2515034912075919e+01,
             -3.1774009681128604e+01, -4.0724438842170372e+01,
             -5.8962244127806343e+01, 6.3584988385283884e+02,
             5.8506822338028132e+02, -2.5017049030938153e+02,
             -3.6640678093517749e+01, -2.1482038160291933e+02,
             -1.2031062388974493e+02, -2.9361568346389288e+02,
             -1.8751508178986364e+02, -2.5017049030938153e+02,
             9.8608638870296318e+02 ]
   avg:
      - !!opencv-matrix
         rows: 1
         cols: 7
         dt: d
         data: [ 7.7638961374759674e-01, 3.7615546782811484e+00,
             5.5251123110453291e+00, 7.2861355145772295e+00,
             3.0071810881296792e+00, -5.9526516596476240e+00,
             1.3986587524414062e-01 ]
      - !!opencv-matrix
         rows: 1
         cols: 7
         dt: d
         data: [ 6.6630450884501136e-01, 4.0619858105977373e+00,
             4.7998220721880598e+00, 5.1883746385574341e+00,
             -7.0951739947001142e+00, -2.9318614006042480e+00,
             2.0723220507303872e+00 ]
      - !!opencv-matrix
         rows: 1
         cols: 7
         dt: d
         data: [ 6.9057226181030273e-01, 3.4142666161060333e+00,
             2.2558977703253427e+00, 4.8859197100003557e+00,
             -2.0539152622222900e-01, -1.6115178068478901e+00,
             -4.1090632279713946e+00 ]
   inv_eigen_values:
      - !!opencv-matrix
         rows: 7
         cols: 1
         dt: d
         data: [ 3.9595259893023434e-03, 5.5797611654963674e-03,
             2.0183170672928224e-02, 2.2750117873687907e+00,
             9.7001977933134739e+01, 2.4287327649844374e+02, 8388608. ]
      - !!opencv-matrix
         rows: 7
         cols: 1
         dt: d
         data: [ 7.1632215849281094e-03, 1.4602724104955325e-02,
             3.6082748841379998e-02, 6.6927698921386602e-01,
             1.2602599197233879e+01, 2.6623965882585711e+01,
             3.7703806001441219e+04 ]
      - !!opencv-matrix
         rows: 7
         cols: 1
         dt: d
         data: [ 6.9891955814709462e-03, 1.6658299941142561e-02,
             1.7115962570721102e-01, 4.4427057380301331e+00,
             7.1712821669498666e+01, 1.1836070261079596e+04, 8388608. ]
   cov_rotate_mats:
      - !!opencv-matrix
         rows: 7
         cols: 7
         dt: d
         data: [ 2.1972761750561584e-05, 6.0723516891116542e-03,
             1.6677010931880985e-02, 2.1301011964366023e-02,
             6.6714032262715128e-01, 1.2565538553613251e-01,
             7.3373413731987391e-01, -2.4108638343101550e-05,
             -4.8647893572468012e-03, -2.8702500634141689e-03,
             -7.4550015393343803e-03, -6.9957680465272176e-01,
             -2.3131032088600179e-01, 6.7601800841649751e-01,
             1.1983231134690281e-05, 4.0962171208059808e-03,
             -2.1488358160061997e-02, -1.8448910701832546e-02,
             2.5528087841213837e-01, -9.6418711484547837e-01,
             -6.5999921986933913e-02, -6.0192548182936483e-04,
             -1.0471212212647749e-01, -7.3040793622084821e-01,
             -6.7377542298107540e-01, 1.6417901254937080e-02,
             3.1933886714800512e-02, 1.6631736392439679e-02,
             3.2273279056248237e-03, 8.9820680246528484e-01,
             -3.6053101201469234e-01, 2.5126735144507956e-01,
             -8.5758052371813637e-03, 4.7416554538754676e-03,
             4.5177561402758259e-04, 6.3996382614596578e-04,
             4.2681626689119073e-01, 5.7945957666045911e-01,
             -6.9429181769488169e-01, 2.1599801697454891e-03,
             2.6852666222010844e-03, 1.0293156084126398e-03,
             9.9999440562384090e-01, -3.2353016395986521e-03,
             3.5289131556070423e-04, -7.7259409971760758e-04,
             1.5931391072375997e-06, 5.4170043192607871e-06,
             8.8609633227855224e-06 ]
      - !!opencv-matrix
         rows: 7
         cols: 7
         dt: d
         data: [ 1.3962307899614078e-04, 4.8802594701914129e-02,
             -2.1173635413455970e-03, 4.2006619255769227e-02,
             -2.5716135339865925e-01, 4.4347501877242640e-01,
             8.5618175290592180e-01, -1.3294687371926683e-04,
             9.6186425049488156e-03, -1.9860717824867861e-02,
             5.3216966895057415e-03, -9.0038891682480027e-01,
             2.1028303639460449e-01, -3.8021775147544701e-01,
             3.6331719821486118e-04, -6.9854470885658132e-02,
             -5.3538197426695779e-02, -3.7397507665003452e-02,
             -3.4895446791147539e-01, -8.6457875594264111e-01,
             3.4869709323700804e-01, 4.4221645231021216e-03,
             -6.6194264477534959e-01, -6.2690667606020889e-01,
             -3.9676286158357310e-01, 2.4553804759961453e-02,
             1.0337781724357688e-01, 9.4746103700417261e-03,
             1.0827008005106695e-02, 4.3353205428276964e-01,
             -7.6336886302206319e-01, 4.7626408942168735e-01,
             2.8169144559237767e-02, -3.0161941557805633e-02,
             -2.5884097029192855e-02, 7.5510094501635766e-03,
             6.0538261364962609e-01, -1.4437177695455353e-01,
             -7.8265826870892607e-01, 1.4423991840746139e-03,
             -4.2164407490920975e-03, 6.1513331534972454e-03,
             9.9990301201967069e-01, -6.3186542817260756e-03,
             1.2145722454528558e-02, 2.5165691692208697e-03,
             -3.8151416219130998e-04, 1.8141930219095376e-04,
             -1.0488905271193183e-04 ]
      - !!opencv-matrix
         rows: 7
         cols: 7
         dt: d
         data: [ 3.2658022935555867e-04, 2.6521652078997999e-02,
             1.1874813890870464e-03, 2.6655976733901271e-02,
             7.0375794897842670e-01, 5.7300151004742594e-01,
             -4.1830439017743359e-01, -4.5651706532119788e-03,
             -5.8011249173128304e-02, -1.5929303940759310e-02,
             -6.9700585055441744e-02, 4.7345587282017809e-01,
             6.2331662578439549e-02, 8.7375982983738898e-01,
             -1.6360323458954117e-02, -2.8120702277848753e-01,
             -5.6663539830731288e-02, -3.1935275123236917e-01,
             4.6998661815797937e-01, -7.3016754013975926e-01,
             -2.4784260281320500e-01, -3.9848963017815028e-02,
             -5.2146595755507241e-01, -1.9806279309539290e-01,
             -7.0365759147099327e-01, -2.4332989850592376e-01,
             3.6439768990628063e-01, 1.1283762587523168e-02,
             -1.5433362794805036e-01, 5.7274589194873227e-01,
             -7.7054686073918022e-01, -2.2829602491603218e-01,
             2.1144480093144229e-02, -4.2693521054755101e-02,
             -3.4509671563853110e-03, 1.6261725161600743e-01,
             5.6215809076038292e-01, 5.5951373049003139e-01,
             -5.8689417677343503e-01, 3.6366167755887244e-03,
             -4.5041625256311158e-03, -9.3115133285933118e-05,
             9.7358112825086796e-01, -2.9454823715238939e-02,
             -2.2473793895811012e-01, 2.7335908066476639e-02,
             2.6666397024787672e-03, -3.2704771343434243e-03,
             2.9536437525047189e-06 ]
   c: !!opencv-matrix
      rows: 1
      cols: 3
      dt: d
      data: [ -1.2208495144543919e+01, -3.4643908732002324e+00,
          -2.0261830072623280e+01 ]
