%YAML:1.0
---
opencv_ml_svm:
   format: 3
   svmType: C_SVC
   kernel:
      type: RBF
      gamma: 1.
   C: 1.
   term_criteria: { epsilon:1.1920928955078125e-07, iterations:1000 }
   var_count: 7
   class_count: 3
   class_labels: !!opencv-matrix
      rows: 3
      cols: 1
      dt: i
      data: [ 1, 2, 3 ]
   sv_total: 36
   support_vectors:
      - [ 7.76786864e-01, 3.89617872e+00, 4.93510485e+00, 6.92403269e+00,
          1.29384842e+01, -9.02608967e+00, 1.30986290e+01 ]
      - [ 7.75508881e-01, 3.51390290e+00, 4.91575336e+00, 6.57145214e+00,
          -1.23188419e+01, -8.32867622e+00, -1.31962090e+01 ]
      - [ 7.76786685e-01, 3.84245038e+00, 6.10862541e+00, 8.01109409e+00,
          1.60614185e+01, -1.01009264e+01, 1.50732346e+01 ]
      - [ 7.75159955e-01, 3.43578482e+00, 4.97244263e+00, 6.62203217e+00,
          -1.24437056e+01, -8.34099865e+00, -1.29057388e+01 ]
      - [ 7.75018990e-01, 3.53338909e+00, 4.64722347e+00, 6.33699703e+00,
          -1.18509178e+01, -8.13136196e+00, 1.23389635e+01 ]
      - [ 7.76634395e-01, 3.84371018e+00, 6.04752588e+00, 7.60530710e+00,
          1.51829672e+01, -9.67210007e+00, 1.44386606e+01 ]
      - [ 7.76602089e-01, 3.80565453e+00, 6.19232416e+00, 7.84315538e+00,
          -1.49002476e+01, -9.75387573e+00, 1.52511644e+01 ]
      - [ 7.76772499e-01, 3.81194329e+00, 5.75581312e+00, 7.35026598e+00,
          -1.39336872e+01, -9.27208328e+00, -1.43453922e+01 ]
      - [ 7.76975572e-01, 3.96011066e+00, 5.19692087e+00, 7.10038614e+00,
          1.32496691e+01, -1.01715879e+01, -1.45182419e+01 ]
      - [ 7.76920617e-01, 3.85911655e+00, 6.20994186e+00, 8.10757637e+00,
          1.58829327e+01, 1.03886290e+01, 1.52794151e+01 ]
      - [ 7.76715636e-01, 3.82853913e+00, 5.91446161e+00, 7.66646576e+00,
          1.44789848e+01, 1.06412001e+01, -1.49644823e+01 ]
      - [ 7.76793182e-01, 3.80787587e+00, 5.40521049e+00, 7.29486132e+00,
          1.37391167e+01, -9.66394901e+00, -1.38716125e+01 ]
      - [ 6.64201975e-01, 4.45440197e+00, 4.47937441e+00, 5.46610451e+00,
          -1.08194418e+01, 7.72161674e+00, 1.04801702e+01 ]
      - [ 6.92878723e-01, 2.08484554e+00, 2.53174615e+00, 4.05196953e+00,
          -7.80527020e+00, -5.38156223e+00, 7.37144566e+00 ]
      - [ 6.63613975e-01, 4.67367840e+00, 4.69129276e+00, 5.66990089e+00,
          -1.09474411e+01, 8.54940701e+00, 1.10722876e+01 ]
      - [ 6.65898561e-01, 4.45463371e+00, 4.81392908e+00, 5.07263422e+00,
          -1.05080643e+01, -7.30456829e+00, -1.00396852e+01 ]
      - [ 6.64376438e-01, 4.15113163e+00, 5.29738188e+00, 5.03395653e+00,
          -1.06891489e+01, -7.29739332e+00, 1.02237005e+01 ]
      - [ 6.67549074e-01, 6.50296736e+00, 5.89691591e+00, 6.97509766e+00,
          -1.35797443e+01, 1.02401886e+01, 1.35448904e+01 ]
      - [ 6.64556026e-01, 3.62361622e+00, 5.52394295e+00, 4.81214142e+00,
          1.00622606e+01, -6.63522625e+00, -1.02311983e+01 ]
      - [ 6.59111500e-01, 3.27477980e+00, 4.31120348e+00, 4.48561859e+00,
          -1.08441315e+01, -6.17904758e+00, -8.88405514e+00 ]
      - [ 6.63734376e-01, 4.23199463e+00, 4.63939571e+00, 5.84311056e+00,
          -1.12137451e+01, -8.37144852e+00, 1.12582922e+01 ]
      - [ 6.64738119e-01, 4.28254175e+00, 5.45513105e+00, 5.23852110e+00,
          1.06334009e+01, -7.38917112e+00, 1.09364433e+01 ]
      - [ 6.64278924e-01, 4.08047724e+00, 5.26351452e+00, 4.86169958e+00,
          -9.95734596e+00, -6.90196466e+00, -1.03494797e+01 ]
      - [ 6.60716414e-01, 2.92876148e+00, 4.69403696e+00, 4.74974108e+00,
          -9.47341633e+00, -6.23316717e+00, -1.05149469e+01 ]
      - [ 6.19969130e-01, 1.76477671e+00, 2.09381318e+00, 3.19934964e+00,
          6.53770447e+00, -5.22760677e+00, 5.85510015e+00 ]
      - [ 7.17436910e-01, 4.34083176e+00, 2.35590291e+00, 5.87293911e+00,
          1.05606823e+01, 8.37649632e+00, -1.00034323e+01 ]
      - [ 7.14972794e-01, 3.92563272e+00, 2.33977795e+00, 5.45901728e+00,
          -9.53988457e+00, -7.58969212e+00, -9.48184204e+00 ]
      - [ 7.15474188e-01, 3.85610414e+00, 2.34428072e+00, 5.36710167e+00,
          9.35121632e+00, 7.44555569e+00, -9.39790440e+00 ]
      - [ 7.10243940e-01, 3.08024573e+00, 2.32925630e+00, 4.65062475e+00,
          -8.14076519e+00, -6.19100332e+00, -9.65903950e+00 ]
      - [ 7.13297307e-01, 3.57089233e+00, 2.33232737e+00, 5.06905460e+00,
          -9.27171516e+00, -7.32056808e+00, -8.79240704e+00 ]
      - [ 7.16459334e-01, 4.16184473e+00, 2.34926987e+00, 5.69920683e+00,
          9.73559666e+00, 7.80518579e+00, -1.03555460e+01 ]
      - [ 5.23099184e-01, 1.54015648e+00, 1.57300889e+00, 2.44265366e+00,
          5.20685530e+00, -3.65957713e+00, 4.45725775e+00 ]
      - [ 7.15549588e-01, 4.25663185e+00, 2.34188032e+00, 5.77644205e+00,
          9.83579922e+00, 7.90686560e+00, -1.13575716e+01 ]
      - [ 7.13803530e-01, 3.41436219e+00, 2.34039736e+00, 4.94908714e+00,
          -9.14175892e+00, -7.16868496e+00, 8.61198139e+00 ]
      - [ 7.14766085e-01, 3.80882478e+00, 2.33950281e+00, 5.34618235e+00,
          -9.21187687e+00, -7.27023745e+00, 9.68927193e+00 ]
      - [ 7.11795151e-01, 3.25089598e+00, 2.33135557e+00, 4.79937744e+00,
          -8.38655186e+00, -6.44494724e+00, -8.87462711e+00 ]
   decision_functions:
      -
         sv_count: 24
         rho: 4.3880879872757177e-02
         alpha: [ 1., 5.4829449719759060e-01, 8.5759400357819127e-01,
             5.5208820969930184e-01, 1., 8.5742909426414105e-01, 1., 1.,
             7.6717636058987904e-01, 1., 1., 7.6717629984333424e-01,
             -7.3253922760947121e-01, -9.5611915928935742e-01,
             -7.3253922492968371e-01, -7.1148318166414537e-01,
             -9.2873345755930614e-01, -9.5611909622709579e-01,
             -9.5611913822240990e-01, -9.3949270240547045e-01, -1.,
             -9.5611927108803885e-01, -5.9210488671550321e-01,
             -8.8838911946195620e-01 ]
         index: [ 0, 1, 2, 3, 4, 5, 6, 7, 8, 9, 10, 11, 12, 13, 14, 15,
             16, 17, 18, 19, 20, 21, 22, 23 ]
      -
         sv_count: 24
         rho: -6.4694936599647798e-02
         alpha: [ 9.3520590752159116e-01, 4.9115896332888176e-01,
             7.6839533009516392e-01, 4.9470008412615235e-01,
             9.3530503906499696e-01, 7.6824112808363465e-01,
             9.3530509533628681e-01, 9.3354170110168866e-01,
             6.8738099848175760e-01, 9.3530509713035681e-01,
             9.3530504245896595e-01, 6.8738102244850352e-01, -1.,
             -8.8509566595184186e-01, -7.9745987223379755e-01,
             -9.6009594671571830e-01, -7.8041409084295021e-01,
             -6.1721204914050165e-01, -2.3918212818627338e-01, -1.,
             -9.0462644059743869e-01, -8.6872593415536981e-01,
             -8.6872593449826996e-01, -5.8568734685581947e-01 ]
         index: [ 0, 1, 2, 3, 4, 5, 6, 7, 8, 9, 10, 11, 24, 25, 26, 27,
             28, 29, 30, 31, 32, 33, 34, 35 ]
      -
         sv_count: 24
         rho: -9.5651732111607032e-02
         alpha: [ 6.9287452544953698e-01, 9.0444545002920096e-01,
             6.9287454095781631e-01, 6.7335144568103178e-01,
             8.8015027023998915e-01, 9.0434824119042856e-01,
             9.0434825438245059e-01, 8.8890764246986997e-01,
             8.8014117782409018e-01, 9.0434832266573539e-01,
             5.5989010615338153e-01, 8.4063094091819646e-01, -1.,
             -9.1083051502056223e-01, -8.2095615408362366e-01,
             -9.8801148276976047e-01, -8.0338603432292965e-01,
             -6.3536233748134352e-01, -2.4613649057290363e-01, -1.,
             -9.3092918659865964e-01, -8.9408613591968156e-01,
             -8.9397299044846879e-01, -6.0263959074379458e-01 ]
         index: [ 12, 13, 14, 15, 16, 17, 18, 19, 20, 21, 22, 23, 24, 25,
             26, 27, 28, 29, 30, 31, 32, 33, 34, 35 ]
