%YAML:1.0
---
opencv_ml_svm:
   format: 3
   svmType: C_SVC
   kernel:
      type: RBF
      gamma: 1.
   C: 1.
   term_criteria: { epsilon:1.1920928955078125e-07, iterations:1000 }
   var_count: 7
   class_count: 3
   class_labels: !!opencv-matrix
      rows: 3
      cols: 1
      dt: i
      data: [ 1, 2, 3 ]
   sv_total: 35
   support_vectors:
      - [ 7.76546478e-01, 3.90240550e+00, 4.96384907e+00, 6.93718052e+00,
          1.30044909e+01, -9.02170277e+00, 1.30781460e+01 ]
      - [ 7.75107861e-01, 3.48950744e+00, 4.94466591e+00, 6.60489655e+00,
          -1.23799639e+01, -8.34965038e+00, -1.38198662e+01 ]
      - [ 7.76438177e-01, 3.82377625e+00, 6.12246799e+00, 7.95764637e+00,
          -1.55230017e+01, -9.96305180e+00, 1.50179453e+01 ]
      - [ 7.74733841e-01, 3.41537142e+00, 4.99622440e+00, 6.65579796e+00,
          -1.25075197e+01, -8.36505890e+00, -1.29578552e+01 ]
      - [ 7.74775207e-01, 3.52415776e+00, 4.61980343e+00, 6.29352283e+00,
          -1.17580481e+01, -8.07324123e+00, 1.24747066e+01 ]
      - [ 7.76346624e-01, 3.83711743e+00, 5.98284149e+00, 7.51785469e+00,
          1.71708927e+01, -9.54387665e+00, 1.42682037e+01 ]
      - [ 7.76281297e-01, 3.79113078e+00, 6.27896309e+00, 8.01416874e+00,
          -1.59695673e+01, -1.00177889e+01, 1.51660357e+01 ]
      - [ 7.76298761e-01, 3.80452251e+00, 5.73853350e+00, 7.34609509e+00,
          -1.39343023e+01, -9.26632690e+00, -1.42484550e+01 ]
      - [ 7.76596487e-01, 3.95439887e+00, 5.21291208e+00, 7.11841869e+00,
          1.32847500e+01, -1.01521835e+01, -1.45411272e+01 ]
      - [ 7.76589096e-01, 3.85021186e+00, 6.41258335e+00, 8.60939407e+00,
          -1.65494785e+01, 1.06740141e+01, 1.61527843e+01 ]
      - [ 7.76339650e-01, 3.82217550e+00, 5.89719486e+00, 7.63312721e+00,
          1.44124537e+01, -1.01737022e+01, 1.49980955e+01 ]
      - [ 7.76392221e-01, 3.80989194e+00, 5.39609146e+00, 7.29883099e+00,
          1.37195730e+01, -9.69466496e+00, -1.39177847e+01 ]
      - [ 6.60198152e-01, 4.37045479e+00, 4.85436344e+00, 5.48263931e+00,
          -1.14387712e+01, 7.82370281e+00, 1.06569929e+01 ]
      - [ 6.63543463e-01, 5.65801001e+00, 5.96261692e+00, 5.43001699e+00,
          1.11313801e+01, -8.33853436e+00, 1.19457579e+01 ]
      - [ 6.59778953e-01, 5.20876694e+00, 5.24101210e+00, 5.71310329e+00,
          -1.13747053e+01, 8.56641293e+00, 1.13112640e+01 ]
      - [ 6.60228789e-01, 4.22370577e+00, 5.53386402e+00, 4.99827576e+00,
          -1.03131371e+01, -7.12332296e+00, -1.06124916e+01 ]
      - [ 6.60418391e-01, 4.06816006e+00, 6.31684017e+00, 5.01391315e+00,
          -1.08478670e+01, -7.11504316e+00, 1.08131304e+01 ]
      - [ 6.63236082e-01, 5.61868954e+00, 5.95034266e+00, 7.96234798e+00,
          1.49187288e+01, 1.24205322e+01, -1.68136177e+01 ]
      - [ 6.59772515e-01, 3.65617728e+00, 5.25876284e+00, 4.77598333e+00,
          9.92154598e+00, -6.61003256e+00, 9.96875763e+00 ]
      - [ 6.54265881e-01, 3.17552423e+00, 4.79158783e+00, 4.46647882e+00,
          9.72853374e+00, -6.08151436e+00, -9.10761166e+00 ]
      - [ 6.60067737e-01, 4.30041933e+00, 4.81815147e+00, 5.85638237e+00,
          -1.14762335e+01, -8.70319271e+00, 1.12626333e+01 ]
      - [ 6.60095692e-01, 4.31289816e+00, 6.92919827e+00, 5.09790134e+00,
          -1.17615643e+01, -7.25601292e+00, -1.11226110e+01 ]
      - [ 6.59996510e-01, 4.14031267e+00, 5.29763460e+00, 4.85539293e+00,
          -9.94373894e+00, -6.92765665e+00, 1.05696449e+01 ]
      - [ 6.54597104e-01, 2.93808103e+00, 4.53470325e+00, 4.69162464e+00,
          -9.30956554e+00, -6.17147350e+00, 1.01359863e+01 ]
      - [ 7.14287281e-01, 4.05715418e+00, 2.33355546e+00, 5.58879852e+00,
          -9.99483490e+00, -8.04242897e+00, -9.57994366e+00 ]
      - [ 7.16381848e-01, 4.36141300e+00, 2.34785557e+00, 5.93720675e+00,
          1.03375006e+01, 8.26370430e+00, -1.01587839e+01 ]
      - [ 7.13618279e-01, 3.94884467e+00, 2.32940888e+00, 5.46547842e+00,
          -9.53619957e+00, -7.60457087e+00, -9.49283600e+00 ]
      - [ 7.14249671e-01, 3.86820340e+00, 2.33492851e+00, 5.37381172e+00,
          9.45034504e+00, 7.54791307e+00, -9.32491493e+00 ]
      - [ 7.09393919e-01, 3.08899331e+00, 2.32222605e+00, 4.65299034e+00,
          -8.14238262e+00, -6.19921637e+00, -9.18409157e+00 ]
      - [ 7.12465346e-01, 3.56750298e+00, 2.32616949e+00, 5.06020308e+00,
          -9.27823925e+00, -7.32883501e+00, -8.77367401e+00 ]
      - [ 7.15674877e-01, 4.15328789e+00, 2.34337759e+00, 5.67496061e+00,
          9.70907116e+00, 7.79604769e+00, -1.01663990e+01 ]
      - [ 7.13749766e-01, 3.75151920e+00, 2.33263445e+00, 5.27968073e+00,
          -9.10359287e+00, -7.16956234e+00, 9.63838196e+00 ]
      - [ 7.14551806e-01, 4.30473614e+00, 2.33421230e+00, 5.83295822e+00,
          9.92257214e+00, 7.99536753e+00, -1.06978350e+01 ]
      - [ 7.12493956e-01, 3.42745471e+00, 2.33008146e+00, 4.95004511e+00,
          -9.14391136e+00, -7.17479086e+00, 8.60775566e+00 ]
      - [ 7.10922122e-01, 3.25458956e+00, 2.32464933e+00, 4.80045509e+00,
          -8.39246178e+00, -6.45480061e+00, -8.81136990e+00 ]
   decision_functions:
      -
         sv_count: 24
         rho: 1.0205520281419379e-01
         alpha: [ 1., 7.4397629394358011e-01, 6.2039015690133270e-01,
             7.5432757761191671e-01, 1., 1., 6.2038979748759859e-01, 1.,
             7.7757044930542496e-01, 1., 1., 7.7757048546193996e-01,
             -7.8000969794519159e-01, -8.9795224571231691e-01,
             -7.8000968570592111e-01, -8.8639639955787053e-01,
             -7.9182408152389205e-01, -8.9794482883549309e-01,
             -8.9794324105004297e-01, -8.9794481301412432e-01,
             -9.5700412813942393e-01, -8.8640047985383352e-01,
             -7.5326024217301946e-01, -8.6753491720066367e-01 ]
         index: [ 0, 1, 2, 3, 4, 5, 6, 7, 8, 9, 10, 11, 12, 13, 14, 15,
             16, 17, 18, 19, 20, 21, 22, 23 ]
      -
         sv_count: 23
         rho: -2.1587755033327810e-01
         alpha: [ 7.8393853767869004e-01, 5.2872851803935361e-01,
             4.4141324795538484e-01, 5.3677058081271689e-01,
             7.8412244570840584e-01, 7.8397220259493594e-01,
             4.4141310853596200e-01, 7.7759369542589907e-01,
             5.5324858701836166e-01, 7.8412243222669920e-01,
             7.8378817107088650e-01, 5.5324852312952688e-01,
             -9.5752353558883596e-01, -7.0643551601999954e-01,
             -2.4252958304461181e-01, -1., -8.7772820137539387e-01,
             -9.0518380568740431e-01, -3.5628037442711799e-02,
             -9.5085138271368619e-01, -7.1781861925963952e-01,
             -9.5085127317311546e-01, -4.0781009589142370e-01 ]
         index: [ 0, 1, 2, 3, 4, 5, 6, 7, 8, 9, 10, 11, 24, 25, 26, 27,
             28, 29, 30, 31, 32, 33, 34 ]
      -
         sv_count: 23
         rho: -2.8590501090465442e-01
         alpha: [ 6.2030647947419237e-01, 7.1409373565184275e-01,
             6.2030655187132644e-01, 7.0491536937292287e-01,
             6.2973749290582448e-01, 7.1409496461098110e-01,
             7.1409379733243528e-01, 7.1409497137543076e-01,
             7.1229251844001407e-01, 7.0491092289866342e-01,
             5.9903541836846319e-01, 6.9089462233539622e-01, -1.,
             -7.4541118097672510e-01, -2.6545745915875280e-01, -1.,
             -9.2804927511655078e-01, -9.5527462715104361e-01,
             -7.0715994962694442e-02, -1., -7.4218361535952593e-01, -1.,
             -4.3168469191220032e-01 ]
         index: [ 12, 13, 14, 15, 16, 17, 18, 19, 20, 21, 22, 23, 24, 25,
             26, 27, 28, 29, 30, 31, 32, 33, 34 ]
